Language model created by QuickLM on Tue Feb  3 11:37:36 EST 2015
Copyright (c) 1996-2010 Carnegie Mellon University and Alexander I. Rudnicky

The model is in standard ARPA format, designed by Doug Paul while he was at MITRE.

The code that was used to produce this language model is available in Open Source.
Please visit http://www.speech.cs.cmu.edu/tools/ for more information

The (fixed) discount mass is 0.5. The backoffs are computed using the ratio method.
This model based on a corpus of 12 sentences and 19 words

\data\
ngram 1=19
ngram 2=29
ngram 3=21

\1-grams:
-0.8751 </s> -0.3010
-0.8751 <s> -0.2333
-1.9542 BACKWARD -0.2389
-1.9542 BROWSER -0.2389
-1.9542 E-MAIL -0.2389
-1.9542 FORWARD -0.2389
-1.9542 HARD -0.2913
-1.9542 LAST -0.2913
-1.9542 LEFT -0.2389
-1.9542 MUSIC -0.2962
-1.9542 NEW -0.2962
-1.9542 NEXT -0.2913
-1.6532 OPEN -0.2913
-1.9542 PLAYER -0.2389
-1.9542 RIGT -0.2389
-1.9542 START -0.2389
-1.6532 STOP -0.2389
-1.6532 TURN -0.2913
-1.6532 WINDOW -0.2389

\2-grams:
-1.3802 <s> BACKWARD 0.0000
-1.3802 <s> FORWARD 0.0000
-1.3802 <s> HARD 0.0000
-1.3802 <s> LAST 0.0000
-1.3802 <s> NEW 0.0000
-1.3802 <s> NEXT 0.0000
-1.0792 <s> OPEN 0.0000
-1.3802 <s> START 0.0000
-1.3802 <s> STOP 0.0000
-1.0792 <s> TURN 0.0000
-0.3010 BACKWARD </s> -0.3010
-0.3010 BROWSER </s> -0.3010
-0.3010 E-MAIL </s> -0.3010
-0.3010 FORWARD </s> -0.3010
-0.3010 HARD STOP 0.0000
-0.3010 LAST WINDOW 0.0000
-0.3010 LEFT </s> -0.3010
-0.3010 MUSIC PLAYER 0.0000
-0.3010 NEW E-MAIL 0.0000
-0.3010 NEXT WINDOW 0.0000
-0.6021 OPEN BROWSER 0.0000
-0.6021 OPEN MUSIC 0.0000
-0.3010 PLAYER </s> -0.3010
-0.3010 RIGT </s> -0.3010
-0.3010 START </s> -0.3010
-0.3010 STOP </s> -0.3010
-0.6021 TURN LEFT 0.0000
-0.6021 TURN RIGT 0.0000
-0.3010 WINDOW </s> -0.3010

\3-grams:
-0.3010 <s> BACKWARD </s>
-0.3010 <s> FORWARD </s>
-0.3010 <s> HARD STOP
-0.3010 <s> LAST WINDOW
-0.3010 <s> NEW E-MAIL
-0.3010 <s> NEXT WINDOW
-0.6021 <s> OPEN BROWSER
-0.6021 <s> OPEN MUSIC
-0.3010 <s> START </s>
-0.3010 <s> STOP </s>
-0.6021 <s> TURN LEFT
-0.6021 <s> TURN RIGT
-0.3010 HARD STOP </s>
-0.3010 LAST WINDOW </s>
-0.3010 MUSIC PLAYER </s>
-0.3010 NEW E-MAIL </s>
-0.3010 NEXT WINDOW </s>
-0.3010 OPEN BROWSER </s>
-0.3010 OPEN MUSIC PLAYER
-0.3010 TURN LEFT </s>
-0.3010 TURN RIGT </s>

\end\
